34 128
34 0.017113 0.287341 0.234924 -0.351632 -0.413614 0.062191 -0.433024 0.058420 0.250557 0.087021 -0.176589 0.720185 0.352806 0.213713 0.037695 -0.000969 -0.175102 0.311369 -0.402467 0.075361 -0.265440 -0.638146 0.220896 0.174772 0.256442 0.517995 0.050832 -0.120094 0.536074 -0.057995 0.282513 -0.146630 -0.421890 0.444451 -0.265216 0.333247 -0.273540 0.545158 -0.263112 -0.000668 0.187764 0.367144 0.633445 0.733818 0.210101 0.290120 -0.320154 -0.001561 0.066556 -0.529921 0.070661 -0.421986 -0.473063 -0.292507 -0.329447 -0.013478 -0.337292 -0.219501 -0.143376 -0.027559 0.520942 0.071681 -0.557042 -0.202219 -0.478571 -0.273359 -0.031460 0.224090 -0.116793 -0.011703 0.051386 -0.035890 0.054357 -0.057552 0.324517 0.261314 0.257340 -0.241069 -0.303714 -0.430611 0.835294 -0.132379 -0.095666 0.229115 0.099390 -0.085679 0.004118 0.029386 0.192180 0.001232 0.518123 0.085142 0.369592 -0.489622 -0.276876 -0.288094 0.169375 0.290689 0.170059 0.041382 0.004574 -0.314673 0.029666 -0.068171 -0.325530 -0.005939 0.175773 -0.074432 0.598130 -0.166374 0.201017 -0.020933 -0.162458 -0.317383 0.330435 -0.001092 0.060391 0.115596 -0.168232 0.302966 0.245141 0.184656 0.331424 -0.159029 0.158896 -0.222132 -0.427168 0.110404 
1 0.034915 0.302517 0.194790 -0.307405 -0.386699 0.046462 -0.413258 0.024494 0.199408 0.045579 -0.170465 0.707402 0.336502 0.183580 0.042187 -0.012988 -0.151395 0.331084 -0.370657 0.056481 -0.244614 -0.646379 0.195733 0.161291 0.292775 0.547829 0.070977 -0.128594 0.544963 -0.076910 0.275282 -0.119713 -0.428984 0.412361 -0.230099 0.322213 -0.260115 0.500289 -0.257843 0.010985 0.187908 0.363054 0.628706 0.720546 0.228376 0.301916 -0.293353 0.018388 0.053261 -0.531114 0.099787 -0.396477 -0.449600 -0.316886 -0.289997 0.000175 -0.374996 -0.183885 -0.159397 -0.017157 0.504741 0.056194 -0.514139 -0.177532 -0.461181 -0.242620 -0.024845 0.200010 -0.095090 0.017735 0.054945 -0.027856 0.074417 -0.067167 0.313953 0.262209 0.253738 -0.249612 -0.279110 -0.393317 0.769617 -0.140670 -0.073793 0.154756 0.105031 -0.127661 0.002403 -0.013831 0.213534 0.003686 0.470850 0.097838 0.356753 -0.469316 -0.275862 -0.273979 0.117889 0.275820 0.175294 0.045883 -0.041865 -0.290070 0.019871 -0.041902 -0.309202 -0.041419 0.110586 -0.038555 0.561638 -0.181854 0.186415 -0.008785 -0.161242 -0.306534 0.319794 0.020213 0.067245 0.096348 -0.221188 0.304831 0.203978 0.181297 0.352728 -0.159044 0.141439 -0.197781 -0.419593 0.101027 
2 0.117864 -0.258562 0.167979 -0.257308 -0.150089 0.133187 -0.042946 -0.050629 0.100303 0.298321 -0.114959 0.160682 0.143678 0.285902 0.401520 0.263195 -0.284845 -0.486856 -0.333136 0.018144 0.097320 -0.189493 -0.057971 0.188726 -0.432004 -0.112856 -0.355310 -0.094229 0.062802 -0.037311 -0.247253 -0.267439 -0.037783 0.606648 -0.369556 -0.020046 0.018036 0.182132 -0.300464 0.160252 0.155364 -0.080744 0.181637 -0.147538 -0.155266 0.135159 0.120246 -0.168353 0.003113 0.079596 -0.241730 -0.266386 -0.256859 -0.255070 -0.386741 -0.185879 0.769832 0.000889 0.182937 -0.444681 0.095008 0.096534 -0.570365 -0.064827 -0.139811 -0.143060 -0.096096 0.294995 -0.185310 0.489881 -0.057563 0.120890 -0.143341 0.241783 0.126488 0.014483 0.087024 -0.389159 -0.062062 -0.506592 0.499268 0.216016 -0.154839 0.410631 0.032626 0.162210 -0.115717 0.703547 -0.214740 0.146057 0.338859 -0.123567 0.029904 -0.359294 0.118563 -0.409859 0.517583 -0.466290 0.195660 -0.104109 0.148796 -0.357789 0.059036 0.046929 -0.163889 0.495068 0.396568 -0.178107 0.481401 -0.074640 0.056943 -0.004542 -0.120089 -0.063818 -0.132185 -0.075958 -0.028395 0.200725 0.538078 0.311404 0.642110 0.206120 -0.230421 -0.186031 0.256853 -0.010724 -0.017339 0.145836 
7 0.067587 -0.244487 0.045347 -0.018463 0.116794 -0.026463 -0.482611 0.414861 0.043785 -0.165653 0.046644 0.165969 0.251943 0.223072 0.072926 0.308710 0.236240 -0.274367 -0.508825 0.018251 -0.217291 -0.238767 0.027058 0.112296 -0.319252 -0.096919 0.019913 -0.147316 0.169351 0.189341 -0.197662 -0.400018 -0.044437 0.156596 -0.249920 0.051346 -0.243510 0.663842 -0.103162 0.426846 -0.167665 0.172255 0.337615 0.151199 -0.187762 -0.018811 -0.186391 0.123396 -0.150409 0.022792 0.190862 -0.281177 -0.136242 -0.335502 0.028948 -0.377419 0.145389 -0.231923 0.161349 -0.247475 0.244676 0.111719 -0.237867 0.262831 0.059598 0.183304 0.126351 0.466604 -0.271513 0.105447 0.214790 0.063058 0.184320 -0.283693 0.056471 0.010942 0.042020 -0.133405 -0.061802 -0.429895 0.512746 -0.008787 -0.025602 0.531530 0.306524 0.036651 0.033882 0.183406 -0.014205 0.014683 0.641527 0.151390 0.506903 -0.399735 0.246581 -0.285741 0.488113 0.400001 0.415049 0.203740 0.399153 -0.030121 -0.133284 -0.117980 -0.408921 0.467274 0.179601 0.117193 -0.058492 0.104372 -0.128931 0.107945 -0.483647 -0.173944 0.129834 0.297246 -0.082329 0.004484 0.122533 -0.010023 0.545344 -0.120723 0.092364 -0.226329 0.636267 -0.301346 -0.390231 0.098342 
33 -0.033989 -0.294040 0.175388 -0.263502 -0.172519 -0.158133 0.012405 -0.002775 -0.075564 0.177459 -0.025814 0.197816 0.147856 0.354324 0.481346 0.275690 -0.260826 -0.634782 -0.334445 0.063244 -0.114388 -0.163553 -0.100679 0.074496 -0.445256 -0.014112 -0.376818 -0.281462 0.034983 0.111171 -0.222373 -0.243403 -0.080625 0.506413 -0.434018 0.114831 -0.101691 0.247655 -0.307280 0.339746 0.229470 -0.145662 0.328389 0.024211 -0.075059 0.114216 0.069376 -0.017114 0.074654 0.265587 -0.286512 -0.170585 -0.234176 -0.266285 -0.206652 -0.335460 0.730149 -0.123275 0.232674 -0.297551 0.175806 0.147024 -0.401863 -0.119072 -0.195799 -0.230106 -0.083580 0.245046 -0.124606 0.517575 -0.012265 0.139579 -0.192860 0.096639 0.188391 0.103562 0.173936 -0.521720 -0.110057 -0.492795 0.660810 0.365374 -0.225062 0.557730 -0.055049 0.022112 -0.113033 0.740147 -0.187596 0.171935 0.297843 -0.061990 0.019653 -0.166059 -0.012420 -0.320369 0.586681 -0.492814 0.120110 -0.137974 0.190697 -0.291510 -0.034416 0.028055 -0.363915 0.624552 0.541201 -0.108182 0.392880 0.094920 -0.019107 0.037027 0.137267 -0.039233 -0.165963 -0.171463 -0.031290 0.357192 0.511390 0.299917 0.624683 0.137923 -0.271879 -0.202824 0.295879 0.017300 0.012765 0.147045 
6 0.010892 -0.205684 0.176758 0.168170 0.048843 0.069741 -0.313535 0.331264 -0.077475 -0.178714 0.129679 0.134452 0.323134 0.077451 0.150000 0.332888 0.205514 -0.058347 -0.346878 -0.133727 0.007872 -0.225390 -0.043303 -0.001289 -0.213585 -0.077700 -0.100442 -0.186141 0.341382 0.356910 -0.012501 -0.311786 -0.032382 0.095304 -0.131493 0.122910 -0.059048 0.412607 -0.099659 0.380321 -0.098814 0.040931 0.206579 0.148787 -0.008380 0.100132 -0.163883 0.275402 0.022815 0.053888 0.252450 -0.078853 -0.080256 -0.278932 0.102114 -0.300911 0.104908 -0.356842 -0.026985 -0.323560 0.201592 -0.080998 -0.202856 0.158140 -0.047922 0.198381 0.164262 0.346182 -0.291416 0.201204 0.132749 -0.046690 0.119544 -0.198465 -0.030345 0.071508 0.107033 -0.084750 -0.058960 -0.332727 0.381563 -0.043335 0.109811 0.268562 0.345519 -0.165530 -0.108084 0.153213 -0.083059 0.003428 0.351909 0.248762 0.143122 -0.177153 0.335430 -0.310442 0.240463 0.317192 0.288505 0.079552 0.192143 -0.053510 -0.275353 -0.064525 -0.251215 0.441239 -0.030663 0.035305 -0.115333 -0.119071 -0.216686 0.033603 -0.356109 -0.093662 -0.028569 0.346695 -0.152218 -0.018375 -0.006770 0.002988 0.407010 -0.078668 0.064754 -0.185103 0.474935 -0.165076 -0.314119 0.171760 
3 0.286192 -0.059802 0.228806 -0.123516 -0.261682 0.302666 -0.302702 -0.052423 0.211735 0.449103 -0.311740 0.161189 0.235712 0.393027 0.238602 0.280398 -0.361581 -0.383996 -0.241689 0.034271 0.177126 -0.304789 0.132217 0.268983 -0.424822 0.049202 -0.168693 -0.104051 0.238139 -0.114980 -0.344823 -0.498592 0.008923 0.778428 -0.261384 0.016702 -0.049811 0.202763 -0.303933 -0.084727 0.000452 0.030531 0.011195 -0.201415 -0.125283 0.073733 0.030510 -0.191860 -0.028382 -0.207584 -0.277497 -0.521817 -0.378736 -0.310989 -0.577916 0.013828 0.672837 -0.008974 0.268606 -0.494418 0.025455 0.092189 -0.672349 0.013801 -0.344918 -0.247444 -0.014401 0.422042 -0.130688 0.357948 -0.046983 0.051855 -0.114647 0.426694 0.230276 -0.021626 0.232199 -0.158831 -0.233081 -0.605844 0.443420 0.115006 -0.104359 0.302230 0.034892 0.133146 -0.139700 0.692046 -0.107402 0.043641 0.427882 -0.156171 0.166764 -0.503703 0.186627 -0.466978 0.494249 -0.338114 0.336675 -0.154393 0.072873 -0.280982 0.220606 -0.070365 -0.000426 0.358285 0.327829 -0.227830 0.566804 -0.095885 0.229759 0.112836 -0.287268 -0.224118 -0.049194 0.037594 0.129673 -0.001136 0.585909 0.346236 0.684357 0.179976 -0.132494 0.035984 0.290288 -0.063186 -0.119412 0.103248 
11 -0.052066 -0.179169 0.183491 0.099751 0.075524 0.012979 -0.331690 0.314254 -0.035635 -0.126969 0.069383 0.039113 0.318683 0.087475 0.064084 0.305788 0.215453 -0.069374 -0.348105 -0.110090 -0.084675 -0.268407 0.001972 0.082412 -0.206111 -0.123220 -0.112942 -0.175800 0.304840 0.276043 -0.052899 -0.275716 -0.056832 0.105074 -0.035019 0.073504 -0.069795 0.463833 -0.022653 0.322202 -0.123303 0.103035 0.273605 0.109629 -0.085238 0.098534 -0.167280 0.210802 -0.040909 0.016498 0.179166 -0.176084 -0.078318 -0.213924 0.102947 -0.234505 0.114208 -0.294308 -0.065370 -0.317654 0.214468 -0.016924 -0.046770 0.154822 0.000032 0.166252 0.187500 0.355456 -0.270848 0.203134 0.107999 -0.023445 0.106837 -0.196865 0.053818 0.049287 0.051209 -0.013134 -0.075421 -0.307151 0.414075 0.005595 0.106351 0.261222 0.329491 -0.119724 -0.051617 0.105281 -0.133767 -0.034945 0.399602 0.257343 0.222663 -0.192801 0.358792 -0.304396 0.291628 0.412712 0.345908 0.131470 0.163005 -0.012926 -0.224183 -0.176309 -0.318824 0.380961 0.053805 0.089914 -0.123790 0.000961 -0.186948 0.024921 -0.338787 -0.161252 0.071205 0.344915 -0.093689 -0.041272 0.042889 -0.040958 0.379513 -0.118538 0.098081 -0.168472 0.410611 -0.181934 -0.257301 0.203333 
24 -0.036158 -0.083233 0.325633 0.269543 -0.011105 0.246311 -0.066072 0.140661 -0.258551 -0.068497 0.176973 0.095862 0.369056 -0.054544 0.237063 0.319070 0.035060 0.090295 -0.075422 -0.230997 0.202446 -0.418450 -0.177859 -0.034798 -0.036817 0.097498 -0.244269 -0.224641 0.521872 0.387153 0.187528 -0.008520 -0.077730 0.056159 -0.043616 0.168937 0.096075 -0.027725 -0.261047 0.216321 0.088694 -0.023803 0.272002 0.141700 0.152483 0.272804 -0.096931 0.274013 0.105092 -0.075105 0.200302 0.009292 -0.080474 -0.177221 0.006979 -0.168730 0.012324 -0.526161 -0.255851 -0.501294 0.282579 -0.352670 -0.255955 -0.049306 -0.341105 0.070298 0.113657 0.056532 -0.206020 0.466429 -0.008347 -0.233192 0.020636 0.023794 0.004289 0.047612 0.100437 -0.035393 -0.073669 -0.199626 0.341180 -0.108357 0.127247 -0.092812 0.220884 -0.258380 -0.228059 0.060457 -0.264552 -0.070639 0.077859 0.319043 -0.191752 -0.091102 0.414559 -0.356717 0.000800 0.209761 0.164188 -0.014683 0.029935 -0.166383 -0.478796 -0.065673 -0.139526 0.334971 -0.111010 -0.078539 0.029431 -0.356199 -0.222085 -0.025840 -0.179523 -0.099808 -0.158660 0.348988 -0.146259 0.076869 -0.094483 0.078193 0.245821 0.032173 0.080520 -0.110092 0.288727 0.099630 -0.133965 0.177008 
5 -0.072785 -0.214028 0.223424 0.091211 0.070442 0.008091 -0.315030 0.280143 -0.023876 -0.069993 0.044083 0.037328 0.335279 0.101569 0.068923 0.319857 0.214055 -0.039376 -0.336683 -0.139975 -0.081993 -0.263518 0.001550 0.090143 -0.203107 -0.078044 -0.125006 -0.171123 0.306055 0.288725 -0.038433 -0.262501 -0.066485 0.104912 -0.018337 0.088850 -0.030388 0.465045 0.017927 0.320196 -0.159985 0.126176 0.197244 0.104495 -0.075250 0.127429 -0.134358 0.200685 0.010029 0.010297 0.143329 -0.164231 -0.083010 -0.222555 0.105636 -0.225543 0.090495 -0.240869 -0.134787 -0.310839 0.143024 -0.017147 -0.024417 0.139784 -0.007674 0.155341 0.174524 0.356818 -0.264415 0.232944 0.084968 -0.044500 0.075010 -0.193441 0.049607 0.044453 0.072469 0.001746 -0.065865 -0.264003 0.404985 0.018232 0.129682 0.247211 0.328065 -0.128101 -0.082054 0.096552 -0.180673 -0.034306 0.371741 0.257813 0.173766 -0.204049 0.346507 -0.314301 0.291526 0.394905 0.344348 0.096394 0.155173 -0.011616 -0.220590 -0.197043 -0.311785 0.389131 0.069540 0.101782 -0.088948 0.032268 -0.172258 0.032022 -0.332466 -0.176104 0.054929 0.351502 -0.069343 -0.080055 0.029539 -0.045042 0.374477 -0.088417 0.083545 -0.130758 0.361801 -0.186730 -0.265858 0.238681 
32 -0.087939 -0.192309 0.178813 0.095345 0.095569 0.027862 -0.318672 0.343704 -0.048320 -0.113882 0.076302 0.014557 0.337304 0.087934 0.041211 0.311351 0.208775 -0.114959 -0.308732 -0.085348 -0.094669 -0.286747 -0.008849 0.065712 -0.230396 -0.149299 -0.129219 -0.163253 0.327010 0.288518 -0.049030 -0.276350 -0.014199 0.078440 0.032455 0.099191 -0.087642 0.450099 0.003334 0.300525 -0.119429 0.118940 0.261488 0.115068 -0.134019 0.117605 -0.165527 0.202285 -0.047535 0.029861 0.193077 -0.207849 -0.047215 -0.199518 0.140883 -0.266904 0.152276 -0.292873 -0.104493 -0.295003 0.206508 -0.013846 0.009385 0.151897 0.018487 0.134290 0.215543 0.337852 -0.261296 0.238557 0.099674 -0.063237 0.119423 -0.237619 0.069143 0.021923 0.046605 0.032332 -0.057805 -0.314287 0.402940 0.017210 0.124625 0.279772 0.334167 -0.155388 -0.082247 0.078916 -0.190851 -0.043031 0.382026 0.295961 0.200060 -0.169469 0.395351 -0.336674 0.309301 0.409928 0.329691 0.119877 0.152237 0.026885 -0.257526 -0.230735 -0.361243 0.358997 0.063100 0.115991 -0.140567 0.044324 -0.187224 0.016131 -0.345515 -0.174967 0.068234 0.332392 -0.110949 -0.078749 0.062699 -0.076319 0.399588 -0.098275 0.075365 -0.125735 0.390230 -0.170170 -0.251006 0.228462 
4 0.045031 -0.062413 0.318474 0.191228 0.002230 0.271301 -0.144314 0.241916 -0.233357 -0.128270 0.203826 0.095191 0.396820 -0.021588 0.270907 0.386625 0.089418 0.028501 -0.126192 -0.172863 0.222967 -0.398439 -0.253668 -0.040708 -0.083383 -0.024141 -0.141079 -0.180903 0.522518 0.374259 0.125612 -0.134645 -0.076729 0.019936 0.015719 0.110606 -0.000564 0.008856 -0.179715 0.318061 -0.040147 -0.061058 0.226279 0.088855 0.053558 0.219451 -0.139996 0.336000 0.031343 0.009579 0.214739 0.001802 -0.060504 -0.173041 0.089141 -0.209024 0.052659 -0.506413 -0.178020 -0.486193 0.263887 -0.280651 -0.204615 0.057848 -0.220610 0.193361 0.153140 0.155494 -0.197627 0.450913 0.018921 -0.207668 0.036532 -0.047691 -0.021587 0.051243 0.050321 -0.030616 -0.043602 -0.263141 0.326917 -0.090007 0.153790 0.026953 0.282429 -0.159112 -0.209705 0.107472 -0.254254 -0.069987 0.155064 0.265533 -0.044961 -0.069083 0.460013 -0.403784 -0.034076 0.283589 0.272211 0.030925 0.095464 -0.066024 -0.450861 -0.096389 -0.138361 0.385469 -0.179079 0.016548 -0.106285 -0.344274 -0.207068 0.023643 -0.231730 -0.082606 -0.142764 0.376492 -0.164209 0.007566 -0.112406 0.068221 0.301732 -0.030969 0.090572 -0.110208 0.398391 0.017539 -0.102904 0.179070 
25 0.005155 -0.141571 0.040860 0.041201 0.111399 0.018832 -0.310622 0.363235 -0.006042 -0.192642 0.094351 0.079490 0.210672 0.087675 0.055832 0.242272 0.250640 -0.174666 -0.360863 0.006109 -0.098408 -0.217869 -0.039612 0.013462 -0.204495 -0.110525 -0.022748 -0.131240 0.209250 0.209388 -0.113897 -0.266329 -0.037560 0.052957 -0.133572 0.079513 -0.174566 0.450499 -0.088748 0.318237 -0.098029 0.094821 0.337359 0.172569 -0.142032 0.012667 -0.179709 0.164095 -0.095499 0.025406 0.214968 -0.145205 -0.110923 -0.186208 0.085069 -0.267094 0.058305 -0.258267 0.099668 -0.205980 0.239622 0.065815 -0.143864 0.182605 0.054124 0.181813 0.121536 0.344034 -0.202207 0.082833 0.167718 0.019693 0.176019 -0.254320 0.022584 0.034004 0.009032 -0.081377 -0.042596 -0.318096 0.377146 -0.007698 0.002822 0.350203 0.270087 -0.032392 0.031250 0.102505 -0.006515 0.011470 0.481832 0.183339 0.351317 -0.206524 0.254102 -0.217133 0.300756 0.380776 0.298053 0.144861 0.269810 0.011197 -0.193431 -0.089149 -0.325068 0.318551 0.039949 0.079939 -0.133283 0.010325 -0.167952 0.079473 -0.356470 -0.102024 0.089693 0.288274 -0.128549 0.020992 0.014262 -0.004563 0.371923 -0.099416 0.120068 -0.200639 0.507519 -0.230216 -0.306137 0.089356 
26 -0.035471 -0.177205 0.092602 0.020012 0.100161 -0.008560 -0.316697 0.325593 0.018300 -0.135087 0.050892 0.044714 0.260001 0.111772 0.033663 0.243023 0.222788 -0.145045 -0.377109 -0.033521 -0.127001 -0.221266 0.000791 0.067229 -0.216746 -0.106473 -0.039847 -0.138893 0.207165 0.205099 -0.099661 -0.264792 -0.029251 0.101625 -0.086229 0.069387 -0.120522 0.480440 -0.040264 0.292214 -0.129898 0.143972 0.304257 0.131203 -0.145819 0.045881 -0.168104 0.167270 -0.089203 -0.000785 0.162915 -0.188893 -0.108676 -0.192341 0.079159 -0.249829 0.097529 -0.215615 0.036745 -0.243267 0.215605 0.046693 -0.098845 0.171128 0.047878 0.124878 0.154170 0.345452 -0.220461 0.123418 0.117789 -0.002144 0.141275 -0.228268 0.065093 0.021844 0.040119 -0.037331 -0.086982 -0.299264 0.407961 0.031306 0.037779 0.314768 0.274558 -0.062972 -0.012905 0.123663 -0.063024 -0.016958 0.437455 0.209913 0.301997 -0.211792 0.277614 -0.240196 0.337210 0.377666 0.310630 0.145790 0.213916 -0.006009 -0.164905 -0.148857 -0.346958 0.342692 0.089156 0.094016 -0.097280 0.061658 -0.161981 0.048181 -0.343279 -0.152848 0.100649 0.283254 -0.078503 -0.031034 0.081787 -0.028796 0.380999 -0.114628 0.103348 -0.176206 0.416906 -0.220883 -0.273795 0.142496 
17 0.002092 0.214868 -0.120101 -0.282548 -0.276718 0.124622 0.214796 -0.168582 0.113414 0.103933 0.009238 -0.024801 0.146707 -0.024873 0.171670 0.092062 -0.407693 -0.146365 -0.087674 0.113847 0.219862 -0.485652 -0.011384 -0.021298 0.167010 0.010204 -0.016850 -0.099349 0.248045 -0.067147 -0.089211 0.227382 -0.064032 -0.001458 -0.075400 0.153488 -0.093426 -0.200000 -0.342481 -0.075989 0.304920 0.033486 0.721498 0.140977 -0.200706 0.381119 -0.043084 0.102411 -0.229506 -0.208803 -0.018238 -0.460781 -0.291821 0.126421 -0.101915 0.127924 0.246673 -0.245183 0.152499 -0.145819 0.556644 -0.052247 -0.317445 -0.183358 -0.094679 -0.403681 0.043960 -0.046095 0.282157 0.430255 -0.079059 -0.229899 0.058228 0.337894 0.280862 -0.180338 -0.131055 0.245432 -0.338233 -0.347433 0.399467 0.120287 -0.211702 -0.245477 -0.141264 0.072886 0.003230 0.045016 -0.206039 0.015874 0.052328 -0.039957 0.185178 0.073349 -0.011993 -0.229085 -0.052335 -0.055117 -0.077167 -0.068834 -0.232818 0.002323 -0.056982 -0.263098 -0.309421 -0.157401 0.117550 -0.074854 0.147804 -0.195882 0.093024 -0.152516 0.234947 -0.216647 -0.014202 -0.086817 0.096801 0.076019 0.131470 0.025940 0.256290 0.048516 0.092305 0.075770 -0.009793 0.148478 0.261530 -0.247212 
30 -0.053596 -0.144393 0.314990 0.214092 0.027989 0.172888 -0.170389 0.191127 -0.179871 -0.048779 0.145881 0.070636 0.373972 -0.004299 0.192950 0.358136 0.089762 0.078521 -0.179574 -0.199689 0.115873 -0.345445 -0.111319 0.028934 -0.110352 0.033079 -0.209650 -0.228199 0.465169 0.383926 0.136699 -0.139092 -0.069405 0.077470 -0.021815 0.112840 0.061460 0.155313 -0.136442 0.277468 -0.046536 0.034462 0.185157 0.089152 0.103356 0.196907 -0.087601 0.274743 0.093086 -0.046098 0.181042 -0.044791 -0.070010 -0.231674 0.055011 -0.206443 0.020855 -0.418161 -0.259955 -0.447765 0.202238 -0.261978 -0.130208 0.025643 -0.241762 0.132534 0.144818 0.167976 -0.249755 0.399041 0.006185 -0.172877 0.034011 -0.052682 0.012528 0.044246 0.105211 -0.039034 -0.064897 -0.215079 0.352345 -0.079305 0.149508 0.038003 0.272705 -0.233191 -0.212236 0.079156 -0.250616 -0.039413 0.144698 0.322605 -0.105125 -0.123072 0.400019 -0.373759 0.082665 0.278068 0.238119 0.011169 0.077373 -0.099872 -0.394925 -0.127004 -0.177624 0.367591 -0.063141 0.003888 -0.001672 -0.206261 -0.199898 -0.001362 -0.252317 -0.142943 -0.098116 0.353502 -0.110400 -0.012274 -0.081928 0.035781 0.252814 -0.004235 0.091504 -0.105735 0.294256 0.011134 -0.191622 0.237322 
14 -0.040956 -0.103739 0.323778 0.235795 -0.001621 0.234697 -0.108761 0.175534 -0.174754 -0.075625 0.149689 0.059989 0.361510 -0.039501 0.215673 0.358232 0.057306 0.067689 -0.103707 -0.184633 0.202544 -0.360698 -0.166613 -0.028480 -0.073291 -0.026452 -0.230845 -0.228764 0.505408 0.383758 0.168175 -0.098412 -0.048284 0.075759 0.037467 0.103041 0.080919 0.044337 -0.146754 0.213805 0.019358 -0.046513 0.244923 0.096910 0.080291 0.220526 -0.086386 0.308429 0.083779 -0.053797 0.195991 -0.015683 -0.055457 -0.132925 0.055784 -0.155751 0.100601 -0.487433 -0.231879 -0.465180 0.258265 -0.301105 -0.156300 -0.019914 -0.232266 0.129625 0.143766 0.127810 -0.209081 0.408129 -0.027694 -0.163011 0.022658 -0.033431 0.011554 0.075075 0.077114 0.009851 -0.076159 -0.203898 0.308303 -0.034974 0.156386 -0.060074 0.289460 -0.230819 -0.181082 0.104131 -0.228039 -0.052806 0.067729 0.305485 -0.170719 -0.035402 0.413246 -0.389427 -0.011110 0.221903 0.224787 -0.023113 -0.013034 -0.094611 -0.398646 -0.132076 -0.177544 0.314160 -0.128456 -0.029418 -0.043147 -0.304289 -0.193290 -0.033032 -0.148898 -0.111869 -0.112604 0.349809 -0.149471 0.008689 -0.088437 0.064361 0.238101 -0.015191 0.063341 -0.088034 0.251900 0.037390 -0.123991 0.220115 
8 -0.011161 -0.202449 0.182957 0.081870 0.088830 0.052964 -0.315513 0.358905 -0.033162 -0.157642 0.090307 0.091457 0.252979 0.085947 0.071524 0.294337 0.236077 -0.114489 -0.350139 -0.054700 -0.085725 -0.259216 -0.044472 0.046510 -0.195341 -0.074924 -0.074158 -0.168386 0.274244 0.267715 -0.026043 -0.274421 -0.048325 0.096625 -0.075961 0.063830 -0.099276 0.435249 -0.070654 0.323320 -0.109892 0.112881 0.269128 0.165382 -0.067678 0.064699 -0.168932 0.201465 -0.040685 0.004142 0.200904 -0.133940 -0.084806 -0.221047 0.083599 -0.269884 0.082717 -0.310357 -0.022179 -0.292866 0.216527 -0.006852 -0.131312 0.137560 -0.011309 0.185184 0.139169 0.329702 -0.261962 0.135412 0.107355 -0.008899 0.123540 -0.246958 0.021880 0.090539 0.046831 -0.072338 -0.046321 -0.281218 0.398649 0.005536 0.058956 0.270925 0.314095 -0.102183 -0.030506 0.112424 -0.061079 -0.023399 0.419951 0.239364 0.221140 -0.214105 0.290968 -0.288696 0.297403 0.357304 0.322292 0.127857 0.207176 -0.025886 -0.223991 -0.119784 -0.332702 0.374059 0.040297 0.072980 -0.109647 -0.012542 -0.180839 0.061093 -0.355878 -0.139004 0.069647 0.310014 -0.114000 -0.011299 0.008340 0.001356 0.374537 -0.102581 0.094024 -0.162761 0.453990 -0.196838 -0.299419 0.182131 
28 -0.068353 -0.177895 0.207752 0.086075 0.061041 0.024551 -0.279781 0.278933 -0.040760 -0.077753 0.061085 0.033979 0.288592 0.073772 0.064980 0.280669 0.182583 -0.052233 -0.275847 -0.103531 -0.062519 -0.252137 -0.014117 0.069646 -0.171228 -0.073426 -0.118488 -0.156731 0.287467 0.275393 -0.008711 -0.233614 -0.037530 0.103145 0.000478 0.072860 -0.041969 0.394462 -0.017610 0.268493 -0.117359 0.112321 0.216342 0.103975 -0.052388 0.100008 -0.138400 0.182333 0.008841 -0.010985 0.160473 -0.135759 -0.071270 -0.188702 0.076744 -0.198279 0.080139 -0.274247 -0.105581 -0.288679 0.165491 -0.036950 -0.045162 0.109784 -0.031795 0.150780 0.148387 0.296861 -0.250430 0.201196 0.062372 -0.035977 0.085142 -0.191905 0.064424 0.054545 0.068856 -0.004596 -0.059212 -0.254591 0.364985 0.013885 0.107172 0.202672 0.301773 -0.129779 -0.067326 0.086112 -0.132448 -0.043076 0.326509 0.256623 0.133291 -0.168432 0.314621 -0.296748 0.253059 0.332462 0.297113 0.102140 0.142389 -0.034191 -0.220371 -0.158756 -0.277044 0.343945 0.038551 0.080564 -0.078830 -0.002667 -0.155293 0.010749 -0.284128 -0.163075 0.045856 0.306113 -0.076680 -0.049101 0.026604 -0.025885 0.313096 -0.078709 0.082723 -0.131474 0.342698 -0.146026 -0.226011 0.200523 
27 -0.019451 0.247382 -0.065162 -0.285945 -0.362320 0.187952 -0.001390 -0.142114 0.158708 -0.011781 -0.204095 0.086483 0.367531 0.083880 0.150890 0.032965 -0.377155 -0.083210 0.121792 0.043125 0.091223 -0.447257 0.109100 0.001611 0.144909 -0.303604 -0.128194 0.023854 0.285606 -0.054674 0.219188 0.042053 -0.014034 0.108707 -0.021538 0.195678 -0.018852 -0.200637 -0.188663 -0.104424 0.343529 -0.232752 0.668334 0.120583 -0.087095 0.190462 -0.374167 0.043277 -0.142402 -0.248152 -0.066652 -0.548267 -0.144027 0.428962 -0.075614 0.288154 0.302913 -0.516062 0.159411 -0.290937 0.569988 -0.137731 -0.337968 -0.140171 -0.186120 -0.579690 0.116081 0.069211 0.181148 0.105905 -0.087848 -0.077169 0.003518 0.199660 0.127589 -0.126942 -0.023644 0.280335 -0.214409 -0.343329 0.415913 0.191196 -0.336071 -0.068554 0.125414 0.228628 0.093789 0.207397 -0.121546 -0.149040 0.200900 -0.160835 0.056049 0.176325 0.008743 -0.348948 -0.316632 -0.112892 -0.063885 -0.136485 -0.105368 -0.161613 -0.153144 -0.237987 -0.140419 -0.286373 -0.005946 -0.157413 0.159175 -0.361181 -0.052873 -0.344834 0.367967 -0.344285 0.120245 -0.106435 -0.122194 0.246897 0.249029 0.043948 0.334123 -0.082794 0.094410 -0.111341 0.184830 0.040028 0.229915 0.011073 
13 -0.024687 0.230901 -0.047662 -0.273602 -0.389759 0.222443 -0.057427 -0.143786 0.179640 -0.037066 -0.237630 0.113734 0.417854 0.110441 0.173964 0.036586 -0.386032 -0.071662 0.156144 0.014813 0.054817 -0.451215 0.153756 0.024068 0.144972 -0.356775 -0.153261 0.054355 0.294894 -0.040674 0.303426 -0.022418 -0.002490 0.146086 -0.014633 0.200597 -0.022072 -0.173227 -0.173908 -0.098407 0.354960 -0.259903 0.681012 0.142736 -0.051172 0.151600 -0.464996 0.037923 -0.140269 -0.269963 -0.070653 -0.557669 -0.130387 0.483683 -0.076622 0.311412 0.302049 -0.595526 0.151280 -0.341877 0.578234 -0.161927 -0.352262 -0.125348 -0.229972 -0.600159 0.128836 0.112311 0.135335 0.053847 -0.085932 -0.045655 0.002022 0.156930 0.112904 -0.103600 0.009366 0.284604 -0.196671 -0.370167 0.452030 0.186876 -0.349816 -0.022325 0.199730 0.242668 0.099357 0.243276 -0.099310 -0.185831 0.242271 -0.172303 0.006181 0.179865 0.000151 -0.397687 -0.344795 -0.118940 -0.043579 -0.136194 -0.070824 -0.204858 -0.165643 -0.237818 -0.116749 -0.300130 -0.027777 -0.170093 0.164747 -0.407003 -0.078911 -0.375583 0.375775 -0.363503 0.148137 -0.100103 -0.162592 0.274191 0.271304 0.063223 0.357581 -0.095621 0.126599 -0.146312 0.238133 0.001519 0.214304 0.067765 
29 -0.059788 -0.109152 0.320993 0.238169 -0.002643 0.197956 -0.103410 0.184746 -0.136487 -0.070470 0.138166 0.046848 0.340880 -0.050267 0.179676 0.335072 0.081658 0.083135 -0.083515 -0.184153 0.194674 -0.303534 -0.142169 -0.019160 -0.066460 -0.057160 -0.242944 -0.228244 0.497011 0.377762 0.192231 -0.117568 -0.030155 0.082145 0.070836 0.106079 0.093752 0.068508 -0.104252 0.200613 0.004803 -0.050218 0.241398 0.098618 0.085669 0.216379 -0.089505 0.319234 0.101290 -0.047651 0.202185 0.002255 -0.045204 -0.106576 0.068496 -0.133207 0.082458 -0.473636 -0.243825 -0.442901 0.233971 -0.266808 -0.109173 -0.017049 -0.190233 0.134962 0.142925 0.134139 -0.211652 0.360622 -0.025223 -0.137607 0.020280 -0.053847 0.031347 0.099523 0.072813 0.027020 -0.089206 -0.173666 0.288059 -0.009290 0.166496 -0.065059 0.298403 -0.249835 -0.173041 0.095926 -0.209493 -0.059593 0.038306 0.304214 -0.195888 -0.007154 0.386142 -0.364751 -0.014069 0.234528 0.210574 -0.021370 -0.032843 -0.089558 -0.362440 -0.135692 -0.183591 0.278688 -0.133405 -0.027192 -0.082035 -0.258133 -0.196150 -0.054404 -0.134600 -0.099711 -0.113003 0.334329 -0.161508 -0.016251 -0.095417 0.041558 0.214993 -0.018308 0.045706 -0.077969 0.215921 0.034063 -0.116040 0.231328 
23 -0.018333 0.235602 -0.064383 -0.277600 -0.338733 0.180336 -0.009820 -0.139237 0.153519 -0.013371 -0.212225 0.079465 0.347412 0.095978 0.151966 0.023357 -0.370520 -0.084686 0.137020 0.046269 0.074789 -0.414725 0.115570 0.013396 0.133943 -0.303934 -0.119212 0.044275 0.262677 -0.054616 0.229070 0.026649 -0.011376 0.124784 -0.027448 0.179821 -0.023110 -0.181055 -0.172917 -0.102183 0.325158 -0.231684 0.626410 0.114936 -0.075940 0.150190 -0.388140 0.035911 -0.138611 -0.242376 -0.070045 -0.516721 -0.131816 0.441125 -0.083641 0.282437 0.282681 -0.502779 0.167474 -0.289300 0.530753 -0.130958 -0.331913 -0.132857 -0.186036 -0.568158 0.098776 0.071335 0.159972 0.072491 -0.084395 -0.049786 0.000337 0.181028 0.114239 -0.124935 -0.014998 0.266669 -0.184805 -0.331584 0.395998 0.186424 -0.325953 -0.047385 0.143014 0.228063 0.091464 0.213083 -0.104809 -0.154635 0.190431 -0.172135 0.038463 0.165002 0.005653 -0.334609 -0.318302 -0.124371 -0.066467 -0.139179 -0.091967 -0.170142 -0.130401 -0.218818 -0.118382 -0.279216 -0.014923 -0.164995 0.147890 -0.355115 -0.061356 -0.334720 0.358495 -0.325722 0.125356 -0.108133 -0.123676 0.240713 0.255053 0.051766 0.309883 -0.076225 0.092356 -0.120471 0.182536 0.026808 0.207766 0.028047 
21 0.079934 0.224373 -0.172935 -0.318706 -0.221619 0.049666 0.305936 -0.181249 0.101349 0.162659 0.171102 -0.062094 0.061488 -0.053551 0.177075 0.140585 -0.386421 -0.219826 -0.157678 0.219566 0.275974 -0.582046 -0.099192 -0.008793 0.167585 0.213108 0.006614 -0.291242 0.378321 -0.103550 -0.232347 0.287092 -0.057482 0.143600 -0.125427 0.158462 -0.113015 -0.132602 -0.472627 -0.115371 0.276575 0.215579 0.751837 0.282915 -0.192998 0.511979 0.143483 0.177403 -0.290134 -0.223726 0.072304 -0.469415 -0.400284 -0.194619 -0.257639 -0.131311 0.160076 -0.094011 0.118099 -0.147320 0.542893 0.063057 -0.353054 -0.237912 -0.129359 -0.393954 0.042776 -0.040942 0.174832 0.624216 -0.129895 -0.238363 0.078374 0.482590 0.424488 -0.164530 -0.146186 0.108524 -0.361933 -0.326840 0.606758 0.153026 -0.165787 -0.269924 -0.187213 0.003972 -0.155368 0.050240 -0.249644 0.142628 -0.089465 0.019970 0.325513 -0.102299 0.085528 -0.163139 0.146567 0.081098 0.030906 -0.042266 -0.315288 0.043822 -0.110739 -0.283115 -0.420075 0.073514 0.168200 -0.140658 0.232139 -0.058190 0.110637 -0.042656 0.115580 -0.146348 -0.039939 -0.072456 0.220288 -0.040658 0.124600 0.023561 0.172820 0.070913 -0.019364 0.057601 -0.064919 0.193005 0.154916 -0.298636 
22 0.059729 0.207106 -0.176852 -0.281854 -0.203747 0.042925 0.303876 -0.167607 0.075589 0.148175 0.164771 -0.102188 0.033915 -0.075911 0.176617 0.116250 -0.386198 -0.240733 -0.131922 0.212260 0.278306 -0.528197 -0.103665 -0.016323 0.144932 0.190566 0.028115 -0.271418 0.335831 -0.091246 -0.246683 0.273150 -0.049331 0.130241 -0.099160 0.139164 -0.089341 -0.160562 -0.445256 -0.100684 0.275329 0.191956 0.712860 0.221082 -0.207844 0.488833 0.161268 0.190638 -0.274619 -0.188866 0.048748 -0.439096 -0.360694 -0.161704 -0.215667 -0.125222 0.193661 -0.076261 0.127028 -0.141041 0.513342 0.045401 -0.314411 -0.226526 -0.090349 -0.354752 0.058081 -0.064521 0.169129 0.614999 -0.132585 -0.244619 0.065554 0.475805 0.407966 -0.157682 -0.148179 0.106918 -0.334813 -0.297717 0.538681 0.163651 -0.137123 -0.274091 -0.198806 -0.018897 -0.140320 0.040734 -0.258889 0.131480 -0.104305 0.035311 0.310138 -0.052491 0.074971 -0.168337 0.150939 0.042953 0.019893 -0.065117 -0.290519 0.060994 -0.106185 -0.274982 -0.388475 0.083675 0.172462 -0.109314 0.189675 -0.046850 0.103728 -0.024474 0.100212 -0.143262 -0.066393 -0.090793 0.198817 -0.043649 0.115206 0.009169 0.164179 0.062151 -0.012865 0.079513 -0.097655 0.209545 0.185246 -0.291667 
16 0.042848 0.223837 -0.185533 -0.281454 -0.223137 0.070195 0.270004 -0.183912 0.103752 0.116783 0.119248 -0.085828 0.081622 -0.059347 0.160404 0.085275 -0.374634 -0.210877 -0.051080 0.196324 0.248368 -0.506079 -0.072036 -0.029889 0.163766 0.094170 0.013094 -0.207307 0.311132 -0.104558 -0.159704 0.254934 -0.020654 0.112175 -0.082433 0.137607 -0.060627 -0.191521 -0.398833 -0.126945 0.281866 0.097508 0.688018 0.200354 -0.194581 0.416785 0.058415 0.159419 -0.263977 -0.191050 0.028979 -0.456565 -0.308788 -0.036582 -0.196485 -0.043202 0.194962 -0.133366 0.134679 -0.155410 0.512166 0.029371 -0.282061 -0.208826 -0.093602 -0.395491 0.065317 -0.065841 0.170943 0.511121 -0.119856 -0.205903 0.062971 0.429763 0.348172 -0.164039 -0.131140 0.150749 -0.301738 -0.276577 0.486425 0.178471 -0.178707 -0.263323 -0.144788 0.034065 -0.100797 0.048763 -0.226347 0.084434 -0.093478 -0.017762 0.262790 0.006210 0.061566 -0.178850 0.039758 0.008403 -0.011133 -0.078947 -0.271560 0.040743 -0.121428 -0.278300 -0.338246 0.002590 0.120530 -0.138025 0.172847 -0.094926 0.069157 -0.086156 0.162097 -0.167687 -0.049625 -0.102771 0.139394 0.006813 0.123563 -0.000522 0.159959 0.021421 -0.010281 0.056308 -0.070624 0.203975 0.206701 -0.252026 
20 -0.041617 -0.079020 0.364534 0.285930 -0.013587 0.280790 -0.044160 0.147329 -0.240254 -0.043473 0.189306 0.074296 0.369172 -0.065325 0.253625 0.364568 0.007591 0.098809 -0.059850 -0.231799 0.261909 -0.391485 -0.194160 -0.040246 -0.043189 0.042215 -0.264063 -0.241055 0.555509 0.411245 0.227595 -0.046811 -0.057140 0.092597 0.033904 0.129707 0.127565 -0.054264 -0.177955 0.200110 0.054726 -0.076469 0.221454 0.099008 0.138922 0.255824 -0.061488 0.325510 0.132231 -0.070830 0.194290 0.033370 -0.047467 -0.155982 0.039928 -0.145758 0.093330 -0.523100 -0.279030 -0.519668 0.240577 -0.381165 -0.197560 -0.053878 -0.325449 0.103630 0.129009 0.079130 -0.212471 0.487498 -0.066388 -0.203675 -0.002220 0.029559 -0.001909 0.074317 0.087489 -0.010671 -0.079561 -0.192507 0.310543 -0.052176 0.169914 -0.125507 0.260066 -0.268190 -0.244062 0.099256 -0.267566 -0.059365 -0.022636 0.318203 -0.270665 -0.008408 0.450247 -0.412341 -0.059709 0.182295 0.190456 -0.062496 -0.045257 -0.143800 -0.457161 -0.109262 -0.124960 0.325494 -0.166056 -0.069917 -0.018424 -0.376987 -0.215453 -0.045578 -0.124797 -0.092632 -0.179204 0.348161 -0.168456 0.024861 -0.109569 0.078189 0.216956 0.027965 0.040161 -0.089030 0.220000 0.107632 -0.099220 0.237924 
9 -0.032442 -0.160046 0.209259 0.129647 0.062327 0.073767 -0.240882 0.273638 -0.060879 -0.105130 0.089421 0.064479 0.254804 0.047621 0.089941 0.277913 0.184922 -0.046098 -0.237747 -0.090941 -0.001734 -0.228630 -0.067791 0.033858 -0.151201 -0.062931 -0.123569 -0.165009 0.297744 0.270739 0.028740 -0.210309 -0.042224 0.080895 -0.021630 0.062955 -0.029349 0.303811 -0.059240 0.259016 -0.080133 0.063101 0.201171 0.104005 -0.020881 0.081441 -0.111725 0.198470 0.019285 -0.003496 0.175366 -0.074293 -0.065894 -0.173608 0.070713 -0.200953 0.075390 -0.301769 -0.095293 -0.296887 0.177526 -0.081560 -0.095442 0.091593 -0.054230 0.175477 0.126876 0.247849 -0.226649 0.194988 0.060872 -0.044544 0.072367 -0.173518 0.026412 0.083544 0.062653 -0.034816 -0.047459 -0.222518 0.314667 -0.013342 0.100465 0.166775 0.281792 -0.140305 -0.067964 0.090942 -0.103655 -0.022817 0.265404 0.237565 0.076743 -0.147806 0.295855 -0.272077 0.186777 0.284862 0.267487 0.078922 0.127468 -0.033623 -0.230131 -0.106082 -0.238373 0.324645 -0.003233 0.047798 -0.079678 -0.064416 -0.158809 0.031448 -0.267122 -0.110797 0.008614 0.294842 -0.109614 -0.021793 -0.021726 0.013693 0.285398 -0.063817 0.068003 -0.116121 0.335863 -0.114215 -0.221436 0.181652 
15 0.049558 0.216242 -0.189499 -0.276022 -0.207588 0.068977 0.291397 -0.179019 0.096702 0.113635 0.130464 -0.108526 0.071016 -0.068380 0.165733 0.105172 -0.377344 -0.228632 -0.058210 0.189672 0.259134 -0.494602 -0.083113 -0.030946 0.148339 0.091452 0.003005 -0.222726 0.307640 -0.097520 -0.180197 0.253906 -0.016095 0.107382 -0.075460 0.132426 -0.059768 -0.195742 -0.406144 -0.116084 0.276864 0.101926 0.678713 0.190672 -0.199777 0.427509 0.079095 0.170381 -0.269973 -0.176513 0.035999 -0.446860 -0.309805 -0.046361 -0.194380 -0.053834 0.207599 -0.132185 0.142863 -0.159680 0.500261 0.028130 -0.290254 -0.207802 -0.088243 -0.392995 0.063598 -0.067813 0.176344 0.539393 -0.126473 -0.213742 0.057273 0.442970 0.356306 -0.182839 -0.135255 0.150237 -0.295801 -0.281408 0.488697 0.183039 -0.174174 -0.269901 -0.149408 0.033368 -0.102446 0.059361 -0.240954 0.089742 -0.101102 -0.012226 0.254027 0.011852 0.073476 -0.175205 0.048704 0.007567 -0.008818 -0.072854 -0.272903 0.049579 -0.119377 -0.285251 -0.339168 0.015419 0.122152 -0.130707 0.161658 -0.091065 0.074397 -0.081375 0.160524 -0.151982 -0.058279 -0.092015 0.141665 0.005121 0.133853 -0.011146 0.167933 0.024411 -0.023564 0.056175 -0.064791 0.206655 0.208606 -0.259610 
10 -0.011929 0.238899 -0.091443 -0.269744 -0.342174 0.176269 0.014399 -0.165238 0.162508 -0.005433 -0.173567 0.072617 0.311691 0.075220 0.140822 0.016023 -0.377107 -0.080855 0.150803 0.052893 0.085368 -0.413904 0.125039 0.010563 0.170276 -0.260176 -0.108345 0.023121 0.262508 -0.077973 0.223821 0.034999 0.012909 0.137997 -0.008529 0.187069 -0.025623 -0.189298 -0.198550 -0.124381 0.340873 -0.188755 0.638246 0.151878 -0.062522 0.183930 -0.357262 0.052978 -0.162570 -0.248637 -0.063681 -0.504756 -0.137533 0.403073 -0.097755 0.247050 0.247273 -0.468111 0.152957 -0.277925 0.537072 -0.119631 -0.307843 -0.132423 -0.199786 -0.559316 0.110558 0.062388 0.137783 0.097073 -0.090378 -0.057809 0.009557 0.212058 0.144811 -0.107463 -0.014128 0.252638 -0.189513 -0.307045 0.417743 0.193918 -0.304723 -0.076169 0.133748 0.202760 0.072862 0.189413 -0.097596 -0.129169 0.152686 -0.159172 0.049267 0.159168 -0.017290 -0.322178 -0.285041 -0.102511 -0.049569 -0.129326 -0.106819 -0.149907 -0.136162 -0.240242 -0.129957 -0.268786 -0.019083 -0.164115 0.154538 -0.325014 -0.040585 -0.318654 0.340014 -0.309807 0.115474 -0.127969 -0.104817 0.217871 0.228508 0.039637 0.271092 -0.082390 0.099190 -0.105241 0.149760 0.035971 0.205722 0.005596 
19 0.028234 0.238782 -0.178953 -0.269062 -0.231576 0.082342 0.233008 -0.173499 0.105544 0.089074 0.078387 -0.067854 0.099614 -0.053087 0.150050 0.071945 -0.372166 -0.187928 -0.029310 0.181212 0.230445 -0.498538 -0.056819 -0.034080 0.156439 0.058089 0.010304 -0.183368 0.304607 -0.101498 -0.118483 0.224235 -0.021433 0.125441 -0.071635 0.148181 -0.049590 -0.193711 -0.366561 -0.126312 0.279995 0.064304 0.669846 0.176572 -0.184516 0.381421 0.013953 0.152253 -0.248484 -0.188501 0.015677 -0.471854 -0.275695 0.015899 -0.177180 -0.004305 0.207874 -0.165634 0.142710 -0.163880 0.507078 0.019937 -0.281789 -0.206152 -0.098798 -0.407404 0.072698 -0.054434 0.161251 0.464078 -0.123308 -0.193433 0.046650 0.403859 0.318046 -0.166455 -0.109610 0.152977 -0.282320 -0.274336 0.464700 0.190928 -0.185264 -0.236190 -0.117036 0.050805 -0.076046 0.057471 -0.214487 0.053613 -0.069405 -0.032924 0.248234 0.035120 0.055653 -0.199799 0.007905 -0.002877 -0.020910 -0.091415 -0.242556 0.027738 -0.122169 -0.277422 -0.304051 -0.018227 0.094351 -0.133413 0.168391 -0.114868 0.055745 -0.114073 0.175839 -0.183000 -0.040018 -0.109043 0.108564 0.038981 0.120569 -0.004827 0.182976 -0.000023 -0.002693 0.044325 -0.051159 0.191635 0.203074 -0.221243 
18 0.021818 0.212678 -0.142389 -0.263506 -0.246426 0.098349 0.173378 -0.153853 0.109702 0.086399 -0.009341 -0.033392 0.152308 0.002519 0.156347 0.056148 -0.374734 -0.178751 0.005624 0.136427 0.189062 -0.428128 -0.009021 -0.019343 0.134546 -0.027096 -0.042961 -0.105855 0.254789 -0.077691 -0.043778 0.176515 -0.015596 0.104619 -0.072077 0.132917 -0.047925 -0.190064 -0.293814 -0.104957 0.277823 -0.020958 0.632539 0.143913 -0.157512 0.311216 -0.078788 0.100674 -0.205685 -0.189822 -0.026009 -0.441599 -0.232736 0.129825 -0.133042 0.073487 0.230109 -0.239517 0.150945 -0.183053 0.489480 -0.027437 -0.294472 -0.169479 -0.106104 -0.416100 0.064471 -0.020778 0.172868 0.356794 -0.095130 -0.164031 0.027606 0.325980 0.260665 -0.155740 -0.085921 0.177295 -0.250838 -0.283903 0.421908 0.172801 -0.206217 -0.189744 -0.066065 0.089004 -0.032898 0.104359 -0.177322 -0.003619 0.012477 -0.078296 0.172821 0.071701 0.018536 -0.220069 -0.065164 -0.063321 -0.044145 -0.087641 -0.199954 -0.030051 -0.088420 -0.241595 -0.249847 -0.090460 0.091364 -0.123236 0.148251 -0.167784 0.037551 -0.158457 0.232509 -0.199693 -0.005858 -0.105253 0.043802 0.075082 0.155131 0.021037 0.212381 0.007469 0.031888 0.016216 0.011000 0.148471 0.213288 -0.152831 
31 -0.064079 -0.116238 0.360458 0.238817 -0.008362 0.189112 -0.125887 0.186688 -0.131750 -0.057911 0.140077 0.063624 0.358845 -0.033582 0.183623 0.354850 0.095430 0.075583 -0.101220 -0.185829 0.178156 -0.306858 -0.147925 -0.014605 -0.091605 -0.051261 -0.243646 -0.238334 0.504439 0.384387 0.189055 -0.130945 -0.051996 0.106864 0.070183 0.108827 0.106839 0.085364 -0.090505 0.217932 -0.005302 -0.027612 0.205871 0.094516 0.080013 0.208871 -0.090209 0.317863 0.118668 -0.043316 0.199152 0.002080 -0.058747 -0.127729 0.068007 -0.128457 0.100954 -0.467190 -0.267424 -0.455255 0.221633 -0.256541 -0.112805 -0.014553 -0.197256 0.159983 0.135005 0.139213 -0.219783 0.371357 -0.034650 -0.136111 0.017642 -0.056855 0.039430 0.121317 0.096029 0.025833 -0.093328 -0.184098 0.304909 -0.018035 0.185117 -0.056168 0.311612 -0.253259 -0.176267 0.114547 -0.218560 -0.048434 0.056572 0.318101 -0.198504 -0.013855 0.389382 -0.374372 0.011192 0.236091 0.223152 -0.010596 -0.033341 -0.084829 -0.348929 -0.138810 -0.178882 0.315688 -0.121393 -0.025510 -0.059595 -0.258441 -0.195324 -0.029422 -0.163308 -0.101557 -0.114463 0.343924 -0.148636 -0.032335 -0.092073 0.061373 0.231029 -0.025678 0.059110 -0.072177 0.216872 0.011755 -0.133570 0.250477 
12 -0.018122 0.215400 -0.052409 -0.262680 -0.365008 0.199041 -0.045816 -0.146959 0.178433 -0.033970 -0.223160 0.088553 0.401032 0.106097 0.168641 0.036737 -0.364887 -0.089095 0.165224 0.018288 0.051810 -0.423290 0.143683 0.029445 0.134087 -0.370812 -0.142868 0.038717 0.281727 -0.046043 0.286748 -0.033086 0.022154 0.165928 -0.009885 0.192237 -0.016305 -0.170558 -0.171029 -0.102671 0.349602 -0.261232 0.645774 0.123910 -0.058461 0.147365 -0.437568 0.036563 -0.147018 -0.256405 -0.069015 -0.547502 -0.115354 0.465326 -0.084494 0.274188 0.304536 -0.566971 0.162010 -0.336232 0.544803 -0.154677 -0.335293 -0.122920 -0.221394 -0.587515 0.125051 0.116342 0.107918 0.045013 -0.093904 -0.020202 -0.002495 0.170263 0.106443 -0.102907 0.003844 0.271168 -0.169581 -0.338204 0.441912 0.206643 -0.340188 -0.017847 0.209302 0.242753 0.083122 0.252145 -0.103953 -0.166911 0.223888 -0.169401 0.012435 0.168218 0.013118 -0.384413 -0.328116 -0.112236 -0.026478 -0.132887 -0.066379 -0.194511 -0.171240 -0.230582 -0.111032 -0.275650 -0.024746 -0.172120 0.154170 -0.386974 -0.094089 -0.362700 0.363842 -0.349040 0.147542 -0.096678 -0.151090 0.262829 0.284402 0.057632 0.332206 -0.114327 0.097878 -0.157926 0.227103 0.000558 0.212598 0.065159 
